network unknown {
}
variable ace_1 {
    type discrete [ 3 ] { 0, 1, 2 };
}
variable ace_2 {
    type discrete [ 3 ] { 0, 1, 2 };
}
variable double_fault_1 {
    type discrete [ 3 ] { 0, 1, 2 };
}
variable double_fault_2 {
    type discrete [ 3 ] { 0, 1, 2 };
}
variable net_pt_won_1 {
    type discrete [ 3 ] { 0, 1, 2 };
}
variable net_pt_won_2 {
    type discrete [ 3 ] { 0, 1, 2 };
}
variable perception_of_control_1 {
    type discrete [ 2 ] { 0, 1 };
}
variable perception_of_control_2 {
    type discrete [ 2 ] { 0, 1 };
}
variable precipitating_event_1 {
    type discrete [ 2 ] { 0, 1 };
}
variable precipitating_event_2 {
    type discrete [ 2 ] { 0, 1 };
}
variable residual_effect_1 {
    type discrete [ 2 ] { 0, 2 };
}
variable residual_effect_2 {
    type discrete [ 2 ] { 0, 2 };
}
variable score_advantage_1 {
    type discrete [ 3 ] { 0, 1, 2 };
}
variable score_advantage_2 {
    type discrete [ 3 ] { 0, 1, 2 };
}
variable unf_err_1 {
    type discrete [ 3 ] { 0, 1, 2 };
}
variable unf_err_2 {
    type discrete [ 3 ] { 0, 1, 2 };
}
probability ( ace_1 ) {
    table 0.26403906522497383, 0.47192186955005233, 0.26403906522497383 ;
}
probability ( ace_2 ) {
    table 0.35664457621206835, 0.2867108475758633, 0.35664457621206835 ;
}
probability ( double_fault_1 ) {
    table 0.1355946982908964, 0.7288106034182071, 0.1355946982908964 ;
}
probability ( double_fault_2 ) {
    table 0.25863271712591557, 0.4827345657481688, 0.25863271712591557 ;
}
probability ( net_pt_won_1 ) {
    table 0.32786885245901637, 0.3442622950819672, 0.32786885245901637 ;
}
probability ( net_pt_won_2 ) {
    table 0.4170735960934775, 0.16585280781304498, 0.4170735960934775 ;
}
probability ( perception_of_control_1 | ace_1, net_pt_won_1 ) {
    ( 0, 0 ) 0.012670358737782833, 0.9873296412622171;
    ( 0, 1 ) 0.8406538168077023, 0.1593461831922977;
    ( 0, 2 ) 0.4635229483590444, 0.5364770516409556;
    ( 1, 0 ) 0.532546262557732, 0.46745373744226804;
    ( 1, 1 ) 0.7464653717199038, 0.25353462828009626;
    ( 1, 2 ) 0.7855486635053824, 0.21445133649461767;
    ( 2, 0 ) 0.5401016665425893, 0.45989833345741066;
    ( 2, 1 ) 0.12738843321400628, 0.8726115667859938;
    ( 2, 2 ) 0.34140068656087463, 0.6585993134391255;

}
probability ( perception_of_control_2 | ace_2, net_pt_won_2 ) {
    ( 0, 0 ) 0.525825457329435, 0.474174542670565;
    ( 0, 1 ) 0.4696276351066297, 0.5303723648933703;
    ( 0, 2 ) 0.4739903004649321, 0.5260096995350678;
    ( 1, 0 ) 0.46710273877862746, 0.5328972612213725;
    ( 1, 1 ) 0.4999987007563351, 0.5000012992436649;
    ( 1, 2 ) 0.532889505179899, 0.467110494820101;
    ( 2, 0 ) 0.5260026912359318, 0.4739973087640682;
    ( 2, 1 ) 0.53036796123228, 0.46963203876772;
    ( 2, 2 ) 0.474167895473357, 0.525832104526643;

}
probability ( precipitating_event_1 | double_fault_1, unf_err_1 ) {
    ( 0, 0 ) 0.04724129451328789, 0.952758705486712;
    ( 0, 1 ) 0.5571546394436377, 0.44284536055636226;
    ( 0, 2 ) 0.36687770326850927, 0.6331222967314908;
    ( 1, 0 ) 0.5210092515184762, 0.47899074848152373;
    ( 1, 1 ) 0.6207784758999156, 0.37922152410008425;
    ( 1, 2 ) 0.7726977056080157, 0.2273022943919843;
    ( 2, 0 ) 0.034698549501110225, 0.9653014504988898;
    ( 2, 1 ) 0.5044072487096002, 0.4955927512903998;
    ( 2, 2 ) 0.7324208906152557, 0.2675791093847442;

}
probability ( precipitating_event_2 | double_fault_2, unf_err_2 ) {
    ( 0, 0 ) 0.9999999972744649, 2.725535106048249e-09;
    ( 0, 1 ) 0.9999999999189372, 8.106282222919627e-11;
    ( 0, 2 ) 0.9999990569052031, 9.430947968889143e-07;
    ( 1, 0 ) 0.9999999917410927, 8.25890728141452e-09;
    ( 1, 1 ) 0.9999999996159341, 3.840659683751446e-10;
    ( 1, 2 ) 0.999952051410388, 4.794858961193209e-05;
    ( 2, 0 ) 0.999999999916909, 8.309096694777527e-11;
    ( 2, 1 ) 0.9999999998080851, 1.9191496301153843e-10;
    ( 2, 2 ) 0.999999999916403, 8.359695381206959e-11;

}
probability ( residual_effect_1 | perception_of_control_1, perception_of_control_2, precipitating_event_1, precipitating_event_2, score_advantage_1 ) {
    ( 0, 0, 0, 0, 0 ) 1.0533327463971764e-20, 1.0;
    ( 0, 0, 0, 0, 1 ) 9.784234795198895e-21, 1.0;
    ( 0, 0, 0, 0, 2 ) 8.917087814697821e-21, 1.0;
    ( 0, 0, 0, 1, 0 ) 0.9999999999655009, 3.449896126021274e-11;
    ( 0, 0, 0, 1, 1 ) 0.9999989480980332, 1.0519019667507359e-06;
    ( 0, 0, 0, 1, 2 ) 2.732445825169558e-11, 0.9999999999726755;
    ( 0, 0, 1, 0, 0 ) 1.0397787275293862e-20, 1.0;
    ( 0, 0, 1, 0, 1 ) 1.0672551548159201e-20, 1.0;
    ( 0, 0, 1, 0, 2 ) 9.263076402031739e-21, 1.0;
    ( 0, 0, 1, 1, 0 ) 0.9999999999633594, 3.6640544424841035e-11;
    ( 0, 0, 1, 1, 1 ) 3.257112937187118e-07, 0.9999996742887063;
    ( 0, 0, 1, 1, 2 ) 3.183254773426094e-11, 0.9999999999681675;
    ( 0, 1, 0, 0, 0 ) 1.0, 9.441260666716923e-21;
    ( 0, 1, 0, 0, 1 ) 1.0, 1.0222425826069621e-20;
    ( 0, 1, 0, 0, 2 ) 1.0, 1.114494027553861e-20;
    ( 0, 1, 0, 1, 0 ) 8.85511822524267e-21, 1.0;
    ( 0, 1, 0, 1, 1 ) 9.569993871272719e-21, 1.0;
    ( 0, 1, 0, 1, 2 ) 5.817344016184161e-21, 1.0;
    ( 0, 1, 1, 0, 0 ) 1.0, 9.54156485646632e-21;
    ( 0, 1, 1, 0, 1 ) 1.0, 9.404882544796939e-21;
    ( 0, 1, 1, 0, 2 ) 1.0, 1.0853339505180488e-20;
    ( 0, 1, 1, 1, 0 ) 8.94030581934854e-21, 1.0;
    ( 0, 1, 1, 1, 1 ) 8.15991517132796e-21, 1.0;
    ( 0, 1, 1, 1, 2 ) 6.956796330375224e-21, 1.0;
    ( 1, 0, 0, 0, 0 ) 1.0972992998490794e-20, 1.0;
    ( 1, 0, 0, 0, 1 ) 8.192119156963873e-21, 1.0;
    ( 1, 0, 0, 0, 2 ) 9.292804702801543e-21, 1.0;
    ( 1, 0, 0, 1, 0 ) 0.9999999999711384, 2.88615604110284e-11;
    ( 1, 0, 0, 1, 1 ) 0.5045393225530055, 0.49546067744699446;
    ( 1, 0, 0, 1, 2 ) 2.5451058543448415e-11, 0.999999999974549;
    ( 1, 0, 1, 0, 0 ) 1.106964974940163e-20, 1.0;
    ( 1, 0, 1, 0, 1 ) 1.228559376926802e-20, 1.0;
    ( 1, 0, 1, 0, 2 ) 1.0018248818785382e-20, 1.0;
    ( 1, 0, 1, 1, 0 ) 0.9999999999759797, 2.4020358704569987e-11;
    ( 1, 0, 1, 1, 1 ) 1.1365849946624248e-08, 0.99999998863415;
    ( 1, 0, 1, 1, 2 ) 2.602432459846842e-11, 0.9999999999739757;
    ( 1, 1, 0, 0, 0 ) 1.0, 9.181444374452925e-21;
    ( 1, 1, 0, 0, 1 ) 1.0, 1.2146929942964647e-20;
    ( 1, 1, 0, 0, 2 ) 1.0, 1.0750826058085859e-20;
    ( 1, 1, 0, 1, 0 ) 1.0352514632287195e-20, 1.0;
    ( 1, 1, 0, 1, 1 ) 7.943327554695682e-21, 1.0;
    ( 1, 1, 0, 1, 2 ) 6.942186423295248e-21, 1.0;
    ( 1, 1, 1, 0, 0 ) 1.0, 9.086750703451815e-21;
    ( 1, 1, 1, 0, 1 ) 1.0, 8.14202068927337e-21;
    ( 1, 1, 1, 0, 2 ) 1.0, 9.997898025437691e-21;
    ( 1, 1, 1, 1, 0 ) 1.15326366869364e-20, 1.0;
    ( 1, 1, 1, 1, 1 ) 1.1927509054443023e-20, 1.0;
    ( 1, 1, 1, 1, 2 ) 7.44796704247215e-21, 1.0;

}
probability ( residual_effect_2 | perception_of_control_2, precipitating_event_2, score_advantage_2 ) {
    ( 0, 0, 0 ) 1.0657280952238043e-20, 1.0;
    ( 0, 0, 1 ) 9.67577135621357e-21, 1.0;
    ( 0, 0, 2 ) 9.392783400563971e-21, 1.0;
    ( 0, 1, 0 ) 0.9999999999765609, 2.3439157960581985e-11;
    ( 0, 1, 1 ) 6.947727060800588e-11, 0.9999999999305227;
    ( 0, 1, 2 ) 3.388802188013221e-11, 0.999999999966112;
    ( 1, 0, 0 ) 1.0, 9.392842419702234e-21;
    ( 1, 0, 1 ) 1.0, 9.675644082770938e-21;
    ( 1, 0, 2 ) 1.0, 1.0657352440575249e-20;
    ( 1, 1, 0 ) 1.0202460801481852e-20, 1.0;
    ( 1, 1, 1 ) 4.5375271780417654e-21, 1.0;
    ( 1, 1, 2 ) 6.605111583998527e-21, 1.0;

}
probability ( score_advantage_1 ) {
    table 0.471224276246948, 0.05755144750610394, 0.471224276246948 ;
}
probability ( score_advantage_2 ) {
    table 0.49363446110917336, 0.012731077781653296, 0.49363446110917336 ;
}
probability ( unf_err_1 ) {
    table 0.38385071503313567, 0.23229856993372863, 0.38385071503313567 ;
}
probability ( unf_err_2 ) {
    table 0.4461109173351936, 0.10777816532961283, 0.4461109173351936 ;
}
