network unknown {
}
variable ace_1 {
    type discrete [ 3 ] { 0, 1, 2 };
}
variable break_pt_won_1 {
    type discrete [ 3 ] { 0, 1, 2 };
}
variable double_fault_1 {
    type discrete [ 3 ] { 0, 1, 2 };
}
variable net_pt_won_1 {
    type discrete [ 3 ] { 0, 1, 2 };
}
variable perception_of_control_1 {
    type discrete [ 2 ] { 0, 1 };
}
variable self_efficacy_1 {
    type discrete [ 2 ] { 0, 1 };
}
variable residual_effect_1 {
    type discrete [ 2 ] { 0, 2 };
}
variable score_advantage_1 {
    type discrete [ 3 ] { 0, 1, 2 };
}
variable unf_err_1 {
    type discrete [ 3 ] { 0, 1, 2 };
}
probability ( ace_1 ) {
    table 0.26403906522497383, 0.47192186955005233, 0.26403906522497383 ;
}
probability ( break_pt_won_1 ) {
    table 0.10908615277293338, 0.7818276944541332, 0.10908615277293338 ;
}
probability ( double_fault_1 ) {
    table 0.1355946982908964, 0.7288106034182071, 0.1355946982908964 ;
}
probability ( net_pt_won_1 ) {
    table 0.32786885245901637, 0.3442622950819672, 0.32786885245901637 ;
}
probability ( perception_of_control_1 | ace_1, net_pt_won_1, self_efficacy_1 ) {
    ( 0, 0, 0 ) 0.49764082024031403, 0.5023591797596859;
    ( 0, 0, 1 ) 0.6279990585486572, 0.37200094145134266;
    ( 0, 1, 0 ) 0.8248835386278768, 0.17511646137212322;
    ( 0, 1, 1 ) 0.37634659306390883, 0.6236534069360911;
    ( 0, 2, 0 ) 0.9947661519316938, 0.005233848068306071;
    ( 0, 2, 1 ) 0.43305498953939964, 0.5669450104606003;
    ( 1, 0, 0 ) 0.4819228061315375, 0.5180771938684626;
    ( 1, 0, 1 ) 0.7884990974540794, 0.21150090254592055;
    ( 1, 1, 0 ) 0.340097124464415, 0.659902875535585;
    ( 1, 1, 1 ) 0.49030900162170965, 0.5096909983782905;
    ( 1, 2, 0 ) 0.456724028910491, 0.543275971089509;
    ( 1, 2, 1 ) 0.175713696679064, 0.824286303320936;
    ( 2, 0, 0 ) 0.8266777180401136, 0.17332228195988636;
    ( 2, 0, 1 ) 0.21009590106547577, 0.7899040989345243;
    ( 2, 1, 0 ) 0.7094069688833557, 0.29059303111664414;
    ( 2, 1, 1 ) 0.36183871468917006, 0.6381612853108299;
    ( 2, 2, 0 ) 0.5169525645301916, 0.4830474354698084;
    ( 2, 2, 1 ) 0.43716170003188604, 0.5628382999681141;

}
probability ( self_efficacy_1 | break_pt_won_1, double_fault_1, unf_err_1 ) {
    ( 0, 0, 0 ) 0.9999818712439111, 1.81287560888907e-05;
    ( 0, 0, 1 ) 0.9983697048060192, 0.001630295193980943;
    ( 0, 0, 2 ) 0.7381958687823542, 0.26180413121764584;
    ( 0, 1, 0 ) 0.5543861467163067, 0.4456138532836933;
    ( 0, 1, 1 ) 0.07455381806814089, 0.925446181931859;
    ( 0, 1, 2 ) 0.41525010649275523, 0.5847498935072447;
    ( 0, 2, 0 ) 0.0005157949714336998, 0.9994842050285663;
    ( 0, 2, 1 ) 0.223016363737839, 0.776983636262161;
    ( 0, 2, 2 ) 0.7199624376673064, 0.2800375623326936;
    ( 1, 0, 0 ) 0.5026593116080744, 0.49734068839192563;
    ( 1, 0, 1 ) 0.4501320921587014, 0.5498679078412986;
    ( 1, 0, 2 ) 0.3066604266801027, 0.6933395733198973;
    ( 1, 1, 0 ) 0.5661395676649821, 0.4338604323350179;
    ( 1, 1, 1 ) 0.03663247204674566, 0.9633675279532543;
    ( 1, 1, 2 ) 0.06424447405442855, 0.9357555259455715;
    ( 1, 2, 0 ) 0.6228959801635697, 0.3771040198364302;
    ( 1, 2, 1 ) 0.7868790891737429, 0.2131209108262571;
    ( 1, 2, 2 ) 0.8752819566171517, 0.12471804338284823;
    ( 2, 0, 0 ) 0.8345206453324744, 0.1654793546675255;
    ( 2, 0, 1 ) 0.7639736107598656, 0.23602638924013444;
    ( 2, 0, 2 ) 0.007680872670927864, 0.992319127329072;
    ( 2, 1, 0 ) 0.8706147849084873, 0.12938521509151268;
    ( 2, 1, 1 ) 0.08839692170463487, 0.9116030782953652;
    ( 2, 1, 2 ) 0.12717324053255952, 0.8728267594674405;
    ( 2, 2, 0 ) 0.6789632107282505, 0.3210367892717495;
    ( 2, 2, 1 ) 0.9998729905312788, 0.00012700946872131494;
    ( 2, 2, 2 ) 0.7540046039700352, 0.2459953960299648;

}
probability ( residual_effect_1 | perception_of_control_1, self_efficacy_1, score_advantage_1 ) {
    ( 0, 0, 0 ) 0.4431294340097309, 0.5568705659902691;
    ( 0, 0, 1 ) 0.46169115797139326, 0.5383088420286067;
    ( 0, 0, 2 ) 0.6722389152821383, 0.3277610847178617;
    ( 0, 1, 0 ) 0.7617637227209155, 0.23823627727908456;
    ( 0, 1, 1 ) 0.6252827137015335, 0.37471728629846635;
    ( 0, 1, 2 ) 0.6351383885653946, 0.36486161143460544;
    ( 1, 0, 0 ) 0.4921735884616132, 0.5078264115383868;
    ( 1, 0, 1 ) 0.47656211215450156, 0.5234378878454985;
    ( 1, 0, 2 ) 0.29792870105465313, 0.7020712989453469;
    ( 1, 1, 0 ) 0.38093135531996924, 0.6190686446800308;
    ( 1, 1, 1 ) 0.4333326268923353, 0.5666673731076647;
    ( 1, 1, 2 ) 0.32447239179165993, 0.6755276082083401;

}
probability ( score_advantage_1 ) {
    table 0.471224276246948, 0.05755144750610394, 0.471224276246948 ;
}
probability ( unf_err_1 ) {
    table 0.38385071503313567, 0.23229856993372863, 0.38385071503313567 ;
}
