network unknown {
}
variable ace_1 {
    type discrete [ 3 ] { 0, 1, 2 };
}
variable break_pt_won_1 {
    type discrete [ 3 ] { 0, 1, 2 };
}
variable double_fault_1 {
    type discrete [ 3 ] { 0, 1, 2 };
}
variable net_pt_won_1 {
    type discrete [ 3 ] { 2, 1, 0 };
}
variable perception_of_control_1 {
    type discrete [ 2 ] { 0, 1 };
}
variable residual_effect_1 {
    type discrete [ 2 ] { 0, 2 };
}
variable score_advantage_1 {
    type discrete [ 3 ] { 2, 1, 0 };
}
variable self_efficacy_1 {
    type discrete [ 2 ] { 0, 1 };
}
variable unf_err_1 {
    type discrete [ 3 ] { 2, 1, 0 };
}
probability ( ace_1 ) {
    table 0.1476886915643771, 0.7046226168712457, 0.1476886915643771 ;
}
probability ( break_pt_won_1 ) {
    table 0.18999738835205016, 0.6200052232958997, 0.18999738835205016 ;
}
probability ( double_fault_1 ) {
    table 0.1636197440585009, 0.6727605118829981, 0.1636197440585009 ;
}
probability ( net_pt_won_1 ) {
    table 0.29785844868111777, 0.4042831026377644, 0.29785844868111777 ;
}
probability ( perception_of_control_1 | ace_1, net_pt_won_1, self_efficacy_1 ) {
    ( 0, 2, 0 ) 0.3895158685842956, 0.6104841314157043;
    ( 0, 2, 1 ) 0.0003090541972890931, 0.999690945802711;
    ( 0, 1, 0 ) 0.4555452643594325, 0.5444547356405675;
    ( 0, 1, 1 ) 0.28361853120872593, 0.7163814687912741;
    ( 0, 0, 0 ) 0.5979642275957743, 0.4020357724042258;
    ( 0, 0, 1 ) 0.9995724182803386, 0.0004275817196614811;
    ( 1, 2, 0 ) 0.6560541924910221, 0.34394580750897785;
    ( 1, 2, 1 ) 0.06934809448407463, 0.9306519055159254;
    ( 1, 1, 0 ) 0.6979953728359665, 0.30200462716403353;
    ( 1, 1, 1 ) 0.34309021175685805, 0.656909788243142;
    ( 1, 0, 0 ) 0.28647996175677864, 0.7135200382432213;
    ( 1, 0, 1 ) 0.632952254758615, 0.36704774524138495;
    ( 2, 2, 0 ) 0.9999962342443629, 3.7657556370841776e-06;
    ( 2, 2, 1 ) 0.1404711607858553, 0.8595288392141447;
    ( 2, 1, 0 ) 0.5010810123858398, 0.49891898761416015;
    ( 2, 1, 1 ) 0.26381373098937283, 0.7361862690106272;
    ( 2, 0, 0 ) 0.06989029345802078, 0.9301097065419792;
    ( 2, 0, 1 ) 0.5438208857763545, 0.45617911422364565;

}
probability ( residual_effect_1 | perception_of_control_1, score_advantage_1, self_efficacy_1 ) {
    ( 0, 2, 0 ) 0.32711951667944633, 0.6728804833205536;
    ( 0, 2, 1 ) 0.381115178641987, 0.618884821358013;
    ( 0, 1, 0 ) 0.34513199101153436, 0.6548680089884656;
    ( 0, 1, 1 ) 0.8827967232897492, 0.11720327671025076;
    ( 0, 0, 0 ) 0.7992745110565055, 0.20072548894349448;
    ( 0, 0, 1 ) 0.9064035539715486, 0.09359644602845155;
    ( 1, 2, 0 ) 0.934287172303461, 0.06571282769653895;
    ( 1, 2, 1 ) 0.32019314671386345, 0.6798068532861364;
    ( 1, 1, 0 ) 0.16203394326898074, 0.8379660567310192;
    ( 1, 1, 1 ) 0.8237918714616363, 0.17620812853836362;
    ( 1, 0, 0 ) 0.37935534218869865, 0.6206446578113014;
    ( 1, 0, 1 ) 0.05805319407876755, 0.9419468059212324;

}
probability ( score_advantage_1 ) {
    table 0.48145729955601985, 0.0370854008879603, 0.48145729955601985 ;
}
probability ( self_efficacy_1 | break_pt_won_1, double_fault_1, unf_err_1 ) {
    ( 0, 0, 2 ) 0.5679564878932449, 0.43204351210675507;
    ( 0, 0, 1 ) 0.6395666086186605, 0.36043339138133956;
    ( 0, 0, 0 ) 0.2361735875012666, 0.7638264124987334;
    ( 0, 1, 2 ) 0.9839898016059714, 0.016010198394028646;
    ( 0, 1, 1 ) 0.7457731785224762, 0.25422682147752385;
    ( 0, 1, 0 ) 0.7701563864828477, 0.2298436135171523;
    ( 0, 2, 2 ) 0.7409721736776346, 0.2590278263223654;
    ( 0, 2, 1 ) 0.4381239470159658, 0.5618760529840343;
    ( 0, 2, 0 ) 0.5057185557917658, 0.49428144420823417;
    ( 1, 0, 2 ) 0.6522807682596292, 0.34771923174037084;
    ( 1, 0, 1 ) 0.7887176576391416, 0.21128234236085838;
    ( 1, 0, 0 ) 0.11166287328125511, 0.8883371267187449;
    ( 1, 1, 2 ) 0.6413572619138657, 0.35864273808613434;
    ( 1, 1, 1 ) 0.5753583566316872, 0.42464164336831267;
    ( 1, 1, 0 ) 0.516600027951372, 0.483399972048628;
    ( 1, 2, 2 ) 0.9956866028698532, 0.0043133971301467155;
    ( 1, 2, 1 ) 0.6390321489614125, 0.36096785103858753;
    ( 1, 2, 0 ) 0.4692684309348912, 0.5307315690651089;
    ( 2, 0, 2 ) 0.7057147886105823, 0.2942852113894176;
    ( 2, 0, 1 ) 0.9998629242353767, 0.0001370757646232548;
    ( 2, 0, 0 ) 0.5718929720317576, 0.42810702796824235;
    ( 2, 1, 2 ) 0.4008803151155498, 0.5991196848844502;
    ( 2, 1, 1 ) 0.48238511978277177, 0.5176148802172282;
    ( 2, 1, 0 ) 0.03646602436607815, 0.9635339756339218;
    ( 2, 2, 2 ) 0.5999021992692996, 0.4000978007307005;
    ( 2, 2, 1 ) 0.3536136753160567, 0.6463863246839433;
    ( 2, 2, 0 ) 0.788053003960349, 0.21194699603965106;

}
probability ( unf_err_1 ) {
    table 0.4042831026377644, 0.19143379472447114, 0.4042831026377644 ;
}
